/*
 * Copyright (c) 2025 EdgeImpulse Inc.
 *
 * Generated by Edge Impulse and licensed under the applicable Edge Impulse
 * Terms of Service. Community and Professional Terms of Service
 * (https://edgeimpulse.com/legal/terms-of-service) or Enterprise Terms of
 * Service (https://edgeimpulse.com/legal/enterprise-terms-of-service),
 * according to your product plan subscription (the “License”).
 *
 * This software, documentation and other associated files (collectively referred
 * to as the “Software”) is a single SDK variation generated by the Edge Impulse
 * platform and requires an active paid Edge Impulse subscription to use this
 * Software for any purpose.
 *
 * You may NOT use this Software unless you have an active Edge Impulse subscription
 * that meets the eligibility requirements for the applicable License, subject to
 * your full and continued compliance with the terms and conditions of the License,
 * including without limitation any usage restrictions under the applicable License.
 *
 * If you do not have an active Edge Impulse product plan subscription, or if use
 * of this Software exceeds the usage limitations of your Edge Impulse product plan
 * subscription, you are not permitted to use this Software and must immediately
 * delete and erase all copies of this Software within your control or possession.
 * Edge Impulse reserves all rights and remedies available to enforce its rights.
 *
 * Unless required by applicable law or agreed to in writing, the Software is
 * distributed on an "AS IS" BASIS, WITHOUT WARRANTIES OR CONDITIONS OF ANY KIND,
 * either express or implied. See the License for the specific language governing
 * permissions, disclaimers and limitations under the License.
 */
// Generated on: 29.11.2025 18:39:37

#include <stdio.h>
#include <stdlib.h>
#include "edge-impulse-sdk/tensorflow/lite/c/builtin_op_data.h"
#include "edge-impulse-sdk/tensorflow/lite/c/common.h"
#include "edge-impulse-sdk/tensorflow/lite/micro/micro_mutable_op_resolver.h"
#include "edge-impulse-sdk/porting/ei_classifier_porting.h"

#if EI_CLASSIFIER_PRINT_STATE
#if defined(__cplusplus) && EI_C_LINKAGE == 1
extern "C" {
    extern void ei_printf(const char *format, ...);
}
#else
extern void ei_printf(const char *format, ...);
#endif
#endif

#define STRINGIZE(x) #x
#define STRINGIZE_VALUE_OF(x) STRINGIZE(x)

#if defined (__GNUC__)  /* GNU compiler */
#define ALIGN(X) __attribute__((aligned(X)))
#define DEFINE_SECTION(x) __attribute__((section(x)))
#elif defined (_MSC_VER)
#define ALIGN(X) __declspec(align(X))
#elif defined (__TASKING__) /* TASKING Compiler */
#define ALIGN(X) __align(X)
#define DEFINE_SECTION(x) __attribute__((section(x)))
#elif defined (__ARMCC_VERSION) /* Arm Compiler */
#define ALIGN(X) __ALIGNED(x)
#define DEFINE_SECTION(x) __attribute__((section(x)))
#elif defined (__ICCARM__) /* IAR Compiler */
#define ALIGN(x) __attribute__((aligned(x)))
#define DEFINE_SECTION(x) __attribute__((section(x)))
#elif defined (__clang__) /* LLVM/Clang Compiler */
#define ALIGN(X) __ALIGNED(x)
#define DEFINE_SECTION(x) __attribute__((section(x)))
#endif

#if defined(EI_MODEL_SECTION) && (defined(__GNUC__) || defined(__clang__))
#define MODEL_SECTION(X) __attribute__((section(STRINGIZE_VALUE_OF(X))))
#else
#define MODEL_SECTION(X)
#endif

#ifndef EI_MAX_SCRATCH_BUFFER_COUNT
#ifndef CONFIG_IDF_TARGET_ESP32S3
#define EI_MAX_SCRATCH_BUFFER_COUNT 4
#else
#define EI_MAX_SCRATCH_BUFFER_COUNT 4
#endif // CONFIG_IDF_TARGET_ESP32S3
#endif // EI_MAX_SCRATCH_BUFFER_COUNT

#ifndef EI_MAX_OVERFLOW_BUFFER_COUNT
#define EI_MAX_OVERFLOW_BUFFER_COUNT 10
#endif // EI_MAX_OVERFLOW_BUFFER_COUNT

using namespace tflite;
using namespace tflite::ops;
using namespace tflite::ops::micro;

namespace {

#if defined(EI_CLASSIFIER_ALLOCATION_STATIC_HIMAX) || defined(EI_CLASSIFIER_ALLOCATION_STATIC_HIMAX_GNU)
constexpr int kTensorArenaSize = 1392;
#else
constexpr int kTensorArenaSize = 368;
#endif

#if defined(EI_CLASSIFIER_ALLOCATION_STATIC)
#if defined (EI_TENSOR_ARENA_LOCATION)
uint8_t tensor_arena[kTensorArenaSize] ALIGN(16) DEFINE_SECTION(STRINGIZE_VALUE_OF(EI_TENSOR_ARENA_LOCATION));
#else
uint8_t tensor_arena[kTensorArenaSize] ALIGN(16);
#endif
#elif defined(EI_CLASSIFIER_ALLOCATION_STATIC_HIMAX)
#pragma Bss(".tensor_arena")
uint8_t tensor_arena[kTensorArenaSize] ALIGN(16);
#pragma Bss()
#elif defined(EI_CLASSIFIER_ALLOCATION_STATIC_HIMAX_GNU)
uint8_t tensor_arena[kTensorArenaSize] ALIGN(16) __attribute__((section(".tensor_arena")));
#else
#define EI_CLASSIFIER_ALLOCATION_HEAP 1
uint8_t* tensor_arena = NULL;
#endif

static uint8_t* tensor_boundary;
static uint8_t* current_location;

template <int SZ, class T> struct TfArray {
  int sz; T elem[SZ];
};

enum used_operators_e {
  OP_FULLY_CONNECTED,  OP_LAST
};

struct TensorInfo_t { // subset of TfLiteTensor used for initialization from constant memory
  TfLiteAllocationType allocation_type;
  void* data;
  TfLiteIntArray* dims;
  size_t bytes;
};

typedef struct {
  TfLiteTensor tensor;
  int16_t index;
} TfLiteTensorWithIndex;

typedef struct {
  TfLiteEvalTensor tensor;
  int16_t index;
} TfLiteEvalTensorWithIndex;

TfLiteContext ctx{};
static const int MAX_TFL_TENSOR_COUNT = 4;
static TfLiteTensorWithIndex tflTensors[MAX_TFL_TENSOR_COUNT];
static const int MAX_TFL_EVAL_COUNT = 4;
static TfLiteEvalTensorWithIndex tflEvalTensors[MAX_TFL_EVAL_COUNT];
TfLiteRegistration registrations[OP_LAST];

namespace g0 {
const TfArray<2, int> tensor_dimension0 = { 2, { 1,16 } };
const MODEL_SECTION(EI_MODEL_SECTION) ALIGN(16) float tensor_data1[10] = { -0.20260971784591675, 0.13296796381473541, -0.27272263169288635, -0.12163341045379639, 0.40998032689094543, -0.20988781750202179, 0.51392370462417603, -0.041313212364912033, 0.14367438852787018, -0.19773143529891968, };
const TfArray<1, int> tensor_dimension1 = { 1, { 10 } };
const MODEL_SECTION(EI_MODEL_SECTION) ALIGN(16) float tensor_data2[20] = { 0.012541257776319981, -0.20387215912342072, -0.51076769828796387, -0.1323317289352417, -0.21410167217254639, -0.19167068600654602, -0.18764172494411469, -0.18115322291851044, -0.32120341062545776, -0.17359691858291626, 0.30602884292602539, 0.3215198814868927, -0.43190795183181763, -0.48131603002548218, -0.0023552409838885069, -0.49304631352424622, -0.12552706897258759, -0.17955394089221954, -0.21069364249706268, -0.20312139391899109, };
const TfArray<1, int> tensor_dimension2 = { 1, { 20 } };
const MODEL_SECTION(EI_MODEL_SECTION) ALIGN(4) float tensor_data3[1] = { 0.50764083862304688, };
const TfArray<1, int> tensor_dimension3 = { 1, { 1 } };
const MODEL_SECTION(EI_MODEL_SECTION) ALIGN(16) float tensor_data4[20*16] = { 
  0.12024872750043869, -0.0057552219368517399, -0.036134462803602219, 0.42359721660614014, 0.00024730977020226419, -0.020260896533727646, -0.10043753683567047, -0.042640682309865952, 0.1334226131439209, -0.86855977773666382, 0.2631726861000061, 0.14374017715454102, 0.32901236414909363, -0.30906406044960022, 0.020937392488121986, 0.2884787917137146, 
  -0.3562585711479187, 0.012634881772100925, 0.29343205690383911, 0.041847918182611465, -0.042776618152856827, 0.029675787314772606, 0.088900983333587646, 0.044051934033632278, 0.17644244432449341, 0.36447042226791382, -0.29578885436058044, 0.16775345802307129, 0.0015685152029618621, 0.063306570053100586, 0.073378995060920715, -0.3106234073638916, 
  0.19511808454990387, -0.10402201116085052, -0.29451900720596313, -0.085318394005298615, 0.44657373428344727, -0.1599850058555603, 0.29898694157600403, 0.37619373202323914, 0.38512611389160156, 0.74094164371490479, -0.41416805982589722, 0.065383821725845337, -0.84578174352645874, -0.12182586640119553, -0.26004114747047424, 0.24345937371253967, 
  -0.16088384389877319, 0.46962586045265198, -0.41549703478813171, 0.02485344372689724, -0.16116461157798767, -0.16363658010959625, -0.43737390637397766, 0.84227442741394043, 0.19969767332077026, -0.59412509202957153, 0.2813316285610199, 0.32225567102432251, 0.37812939286231995, -0.076232746243476868, -0.10386928170919418, -0.060527756810188293, 
  0.39390844106674194, 0.16078567504882812, 0.053156651556491852, -0.24380405247211456, -0.22465890645980835, -0.26827138662338257, 0.37187552452087402, -0.13225714862346649, -0.19068564474582672, 0.27936947345733643, -0.10863114893436432, 0.073324888944625854, -0.24636776745319366, -0.11340902000665665, -0.21993814408779144, 0.23931005597114563, 
  -0.042744170874357224, 0.36625933647155762, 0.1245470866560936, -0.011992502026259899, -0.011499525047838688, -0.30612972378730774, 0.052913185209035873, 0.38892883062362671, -0.15675082802772522, 0.02678028866648674, -0.34583291411399841, -0.14567014575004578, -0.35188654065132141, 0.24625943601131439, 0.040391501039266586, -0.083852380514144897, 
  0.30384770035743713, 0.04777945950627327, -0.18980839848518372, -0.2696366012096405, 0.28454327583312988, -0.36708202958106995, -0.10444729775190353, 0.040073636919260025, -0.14209192991256714, 0.5443265438079834, -0.17599092423915863, -0.030337065458297729, -0.47600102424621582, 0.016156924888491631, -0.039887432008981705, -0.18061324954032898, 
  0.20829758048057556, -0.48887154459953308, 0.076835162937641144, 0.28641173243522644, 0.24301555752754211, 0.085498645901679993, 0.079799532890319824, 0.08316078782081604, -0.13004997372627258, 0.25603026151657104, -0.12992750108242035, 0.38735723495483398, -0.19366446137428284, 0.12344703078269958, -0.25919613242149353, -0.41446247696876526, 
  0.22682812809944153, 0.4103681743144989, 0.16190454363822937, -0.07243812084197998, -0.31166136264801025, 0.22980494797229767, -0.067895382642745972, -0.30508121848106384, -0.032948344945907593, 0.041828904300928116, -0.033262059092521667, 0.24704521894454956, 0.13521488010883331, -0.19693583250045776, 0.058413244783878326, -0.18606555461883545, 
  -0.085359349846839905, 0.35291475057601929, -0.11777870357036591, 0.024511266499757767, 0.027752425521612167, 0.27374500036239624, -0.3357587456703186, 0.301190584897995, -0.22174559533596039, -0.63858866691589355, -0.09565320611000061, -0.27806276082992554, 0.0059131551533937454, 0.15046834945678711, -0.23210817575454712, 0.36652430891990662, 
  0.43293347954750061, 0.038684599101543427, 0.34903436899185181, -0.40831068158149719, -0.43269062042236328, -0.22833171486854553, 0.16937920451164246, 0.13093633949756622, -0.024762153625488281, -0.41269686818122864, -0.11513075977563858, 0.12183088064193726, 0.476735919713974, -0.14261652529239655, 0.21872642636299133, -0.32441964745521545, 
  -0.0035642927978187799, 0.10265684127807617, 0.42133951187133789, -0.12026625871658325, -0.41182947158813477, -0.52509802579879761, 0.23810753226280212, -0.18154577910900116, 0.296966552734375, -0.59276092052459717, 0.48120465874671936, 0.37190955877304077, 0.58222591876983643, 0.16242136061191559, -0.2647823691368103, -0.0353831946849823, 
  -0.068968340754508972, -0.1861971914768219, -0.19798026978969574, -0.18643438816070557, 0.45215266942977905, -0.36353901028633118, -0.25575509667396545, -0.38890045881271362, -0.32755133509635925, 0.64120453596115112, -0.27347707748413086, -0.3751615583896637, -0.15676571428775787, 0.15411919355392456, -0.20020024478435516, 0.32827317714691162, 
  -0.14261256158351898, -0.67827737331390381, -0.095367684960365295, 0.22491419315338135, 0.10672318935394287, 0.3791898787021637, -0.35468718409538269, 0.31585130095481873, -0.05580294132232666, -0.27772277593612671, 0.25332894921302795, 0.10700488090515137, 0.53884172439575195, 0.11223672330379486, -0.040357932448387146, -0.27022606134414673, 
  0.82241445779800415, 0.034145474433898926, -0.28551304340362549, -0.36829110980033875, 0.43635863065719604, -0.43495610356330872, -0.37511089444160461, 0.38589641451835632, 0.18992859125137329, -0.40559029579162598, 0.47813457250595093, -0.40254852175712585, 0.29014301300048828, 0.07421150803565979, -0.37776878476142883, -0.25172552466392517, 
  0.0069581763818860054, 0.44139760732650757, -0.58500993251800537, -0.42175322771072388, -0.20080988109111786, 0.021332046017050743, -0.13839396834373474, -0.065509378910064697, 0.14705413579940796, 0.50443637371063232, -0.25635945796966553, 0.15561532974243164, -0.540149986743927, 0.039569802582263947, -0.026054395362734795, 0.25221303105354309, 
  0.042659562081098557, -0.24110457301139832, -0.018238358199596405, 0.025998255237936974, 0.36346766352653503, 0.012586819007992744, -0.026926496997475624, -0.17744997143745422, 0.14734154939651489, -0.23492445051670074, -0.27035433053970337, -0.12789967656135559, 0.1442415714263916, 0.20160694420337677, -4.616839942173101e-05, 0.22850735485553741, 
  -0.05896323174238205, 0.22269304096698761, 0.24767518043518066, 0.18568199872970581, 0.11193007230758667, -0.23729383945465088, -0.26999479532241821, 0.27652126550674438, 0.13959687948226929, -0.47807487845420837, -0.094154305756092072, 0.39430755376815796, 0.20585376024246216, 0.23001715540885925, -0.26467928290367126, -0.13240730762481689, 
  -0.16663256287574768, 0.047591939568519592, 0.50232964754104614, -0.27394360303878784, 0.39049139618873596, 0.23490628600120544, -0.063400678336620331, 0.094329610466957092, -0.011523574590682983, -0.061861507594585419, -0.17489054799079895, -0.1552584171295166, -0.18032047152519226, -0.12250614911317825, -0.11184059828519821, -0.099518604576587677, 
  -0.0077274059876799583, 0.30786475539207458, 0.05286131426692009, -0.19842807948589325, 0.015424156561493874, -0.10139566659927368, 0.15275754034519196, -0.094901196658611298, 0.29173570871353149, 0.39953354001045227, -0.34837126731872559, 0.32095110416412354, 0.16990701854228973, -0.1726691722869873, 0.078972592949867249, -0.16569282114505768, 
};
const TfArray<2, int> tensor_dimension4 = { 2, { 20,16 } };
const MODEL_SECTION(EI_MODEL_SECTION) ALIGN(16) float tensor_data5[10*20] = { 
  -0.084969207644462585, -0.41687294840812683, -0.40210247039794922, -0.059825211763381958, 0.38123911619186401, -0.26926630735397339, 0.29931536316871643, -0.4011930525302887, -0.022048354148864746, -0.33324447274208069, -0.00079166184877976775, -0.0093891369178891182, 0.13511528074741364, 0.30738264322280884, 0.016061773523688316, -0.39067885279655457, 0.079436846077442169, -0.29814457893371582, -0.40700113773345947, 0.0046171587891876698, 
  -0.13279435038566589, -0.3916984498500824, 0.027548884972929955, 0.24291087687015533, -0.07615208625793457, -0.19602383673191071, -0.72150558233261108, -0.23979750275611877, -0.59740442037582397, 0.28666946291923523, 0.68763840198516846, -0.20189590752124786, -1.771685004234314, 0.036646630614995956, -0.024861687794327736, -1.7024509906768799, 0.072553820908069611, -0.025584772229194641, -0.071743346750736237, -0.07775222510099411, 
  -0.32925957441329956, -0.41276770830154419, -0.011426568031311035, 0.19480164349079132, -0.18503651022911072, -0.22609998285770416, -0.13627669215202332, 0.04879322275519371, -0.18679030239582062, -0.043710947036743164, 0.12338340282440186, -0.010318901389837265, -0.081969767808914185, -0.36020463705062866, -0.15727706253528595, -0.29668605327606201, 0.32243669033050537, -0.57050627470016479, -0.38322222232818604, -0.30915829539299011, 
  -0.18020568788051605, -0.077343210577964783, 0.47687804698944092, -0.11354559659957886, -0.381996750831604, -0.035217020660638809, -0.5329442024230957, -0.041497103869915009, -0.078221194446086884, 0.0023808171972632408, -0.017026582732796669, -0.35122081637382507, -0.26953166723251343, -0.46366158127784729, -0.20928502082824707, -0.33057025074958801, -0.14337851107120514, -0.39781996607780457, 0.15484768152236938, 0.2421572208404541, 
  -0.32550868391990662, 0.15080954134464264, -0.18826042115688324, -0.079496525228023529, -0.37417277693748474, 0.0024406707379966974, -0.15547691285610199, 0.17833633720874786, -0.11994533985853195, 0.11918096989393234, 0.17449803650379181, 0.20690596103668213, 0.019252531230449677, 0.16978278756141663, 0.11123693734407425, -0.37993216514587402, -0.21230176091194153, 0.30567637085914612, 0.20630809664726257, 0.214959517121315, 
  -0.1534428596496582, 0.24240092933177948, -0.38441988825798035, 0.27907636761665344, -0.03253527358174324, -0.18435244262218475, -0.13139060139656067, 0.23196382820606232, -0.49426558613777161, -0.25312000513076782, 0.31411284208297729, -0.033155187964439392, -0.16534258425235748, 0.2340274304151535, -0.17562800645828247, -0.28068432211875916, -0.32020124793052673, 0.30818384885787964, -0.33725297451019287, -0.1379239559173584, 
  0.22715015709400177, 0.099923230707645416, -0.012882727198302746, -0.023835312575101852, 0.26504427194595337, 0.042112942785024643, 0.050336536020040512, 0.0064547169022262096, 0.072004891932010651, -0.08722967654466629, 0.095202960073947906, 0.16989772021770477, -0.15199556946754456, -0.13110005855560303, 0.070615150034427643, -0.0021275936160236597, 0.20109692215919495, -0.18341624736785889, -0.12371422350406647, -0.1437390148639679, 
  0.24460820853710175, 0.41522422432899475, 0.10390167683362961, 0.17289547622203827, -0.021590894088149071, 0.62649351358413696, -0.12972979247570038, -0.48013585805892944, 0.2345406711101532, -0.204029381275177, -0.083185940980911255, 0.30400967597961426, -0.53529900312423706, -0.57422572374343872, -1.7838908433914185, -0.6700817346572876, 0.35236337780952454, 0.18731884658336639, -0.0015126258367672563, 0.2998473048210144, 
  0.16379079222679138, 0.12934194505214691, 0.26650536060333252, 0.051615145057439804, -0.17113713920116425, 0.040500987321138382, -1.2149466276168823, -0.023447882384061813, -0.30443942546844482, -0.21850986778736115, -0.53852957487106323, 0.20859336853027344, -0.72145438194274902, -0.28004494309425354, -0.41003984212875366, 0.072852879762649536, -0.13107883930206299, 0.021763980388641357, -0.38741746544837952, -0.13228361308574677, 
  -0.34694051742553711, -0.34457895159721375, -0.21687246859073639, -0.075405851006507874, 0.25612345337867737, 0.1746843159198761, -0.076080828905105591, -0.028119783848524094, 0.24624307453632355, -0.35648933053016663, -0.41805189847946167, 0.034477394074201584, -0.28586220741271973, -0.26792681217193604, -0.181248739361763, -0.11375398188829422, -0.13675752282142639, 0.14699091017246246, 0.010248482227325439, 0.25103828310966492, 
};
const TfArray<2, int> tensor_dimension5 = { 2, { 10,20 } };
const MODEL_SECTION(EI_MODEL_SECTION) ALIGN(16) float tensor_data6[1*10] = { 
  0.025196442380547523, 0.12759245932102203, -0.38672581315040588, 0.058924365788698196, 0.29276466369628906, -0.0090642273426055908, 0.51966762542724609, -0.095020584762096405, 0.16213898360729218, -0.39087852835655212, 
};
const TfArray<2, int> tensor_dimension6 = { 2, { 1,10 } };
const TfArray<2, int> tensor_dimension7 = { 2, { 1,20 } };
const TfArray<2, int> tensor_dimension9 = { 2, { 1,1 } };
const TfLiteFullyConnectedParams opdata0 = { kTfLiteActRelu, kTfLiteFullyConnectedWeightsFormatDefault, false, false };
const TfArray<3, int> inputs0 = { 3, { 0,4,2 } };
const TfArray<1, int> outputs0 = { 1, { 7 } };
const TfLiteFullyConnectedParams opdata1 = { kTfLiteActRelu, kTfLiteFullyConnectedWeightsFormatDefault, false, false };
const TfArray<3, int> inputs1 = { 3, { 7,5,1 } };
const TfArray<1, int> outputs1 = { 1, { 8 } };
const TfLiteFullyConnectedParams opdata2 = { kTfLiteActNone, kTfLiteFullyConnectedWeightsFormatDefault, false, false };
const TfArray<3, int> inputs2 = { 3, { 8,6,3 } };
const TfArray<1, int> outputs2 = { 1, { 9 } };
};

TensorInfo_t tensorData[] = {
{ kTfLiteArenaRw, (int32_t*)(tensor_arena + 80), (TfLiteIntArray*)&g0::tensor_dimension0, 64, },
{ kTfLiteMmapRo, (int32_t*)g0::tensor_data1, (TfLiteIntArray*)&g0::tensor_dimension1, 40, },
{ kTfLiteMmapRo, (int32_t*)g0::tensor_data2, (TfLiteIntArray*)&g0::tensor_dimension2, 80, },
{ kTfLiteMmapRo, (int32_t*)g0::tensor_data3, (TfLiteIntArray*)&g0::tensor_dimension3, 4, },
{ kTfLiteMmapRo, (int32_t*)g0::tensor_data4, (TfLiteIntArray*)&g0::tensor_dimension4, 1280, },
{ kTfLiteMmapRo, (int32_t*)g0::tensor_data5, (TfLiteIntArray*)&g0::tensor_dimension5, 800, },
{ kTfLiteMmapRo, (int32_t*)g0::tensor_data6, (TfLiteIntArray*)&g0::tensor_dimension6, 40, },
{ kTfLiteArenaRw, (int32_t*)(tensor_arena + 0), (TfLiteIntArray*)&g0::tensor_dimension7, 80, },
{ kTfLiteArenaRw, (int32_t*)(tensor_arena + 80), (TfLiteIntArray*)&g0::tensor_dimension6, 40, },
{ kTfLiteArenaRw, (int32_t*)(tensor_arena + 0), (TfLiteIntArray*)&g0::tensor_dimension9, 4, },
};

#ifndef TF_LITE_STATIC_MEMORY
TfLiteNode tflNodes[3] = {
{ (TfLiteIntArray*)&g0::inputs0, (TfLiteIntArray*)&g0::outputs0, (TfLiteIntArray*)&g0::inputs0, nullptr, nullptr, const_cast<void*>(static_cast<const void*>(&g0::opdata0)), nullptr, 0, },
{ (TfLiteIntArray*)&g0::inputs1, (TfLiteIntArray*)&g0::outputs1, (TfLiteIntArray*)&g0::inputs1, nullptr, nullptr, const_cast<void*>(static_cast<const void*>(&g0::opdata1)), nullptr, 0, },
{ (TfLiteIntArray*)&g0::inputs2, (TfLiteIntArray*)&g0::outputs2, (TfLiteIntArray*)&g0::inputs2, nullptr, nullptr, const_cast<void*>(static_cast<const void*>(&g0::opdata2)), nullptr, 0, },
};
#else
TfLiteNode tflNodes[3] = {
{ (TfLiteIntArray*)&g0::inputs0, (TfLiteIntArray*)&g0::outputs0, (TfLiteIntArray*)&g0::inputs0, nullptr, const_cast<void*>(static_cast<const void*>(&g0::opdata0)), nullptr, 0, },
{ (TfLiteIntArray*)&g0::inputs1, (TfLiteIntArray*)&g0::outputs1, (TfLiteIntArray*)&g0::inputs1, nullptr, const_cast<void*>(static_cast<const void*>(&g0::opdata1)), nullptr, 0, },
{ (TfLiteIntArray*)&g0::inputs2, (TfLiteIntArray*)&g0::outputs2, (TfLiteIntArray*)&g0::inputs2, nullptr, const_cast<void*>(static_cast<const void*>(&g0::opdata2)), nullptr, 0, },
};
#endif

used_operators_e used_ops[] =
{OP_FULLY_CONNECTED, OP_FULLY_CONNECTED, OP_FULLY_CONNECTED, };


// Indices into tflTensors and tflNodes for subgraphs
const size_t tflTensors_subgraph_index[] = {0, 10, };
const size_t tflNodes_subgraph_index[] = {0, 3, };

// Input/output tensors
static const int in_tensor_indices[] = {
  0, 
};

static const int out_tensor_indices[] = {
  9, 
};


size_t current_subgraph_index = 0;

static void init_tflite_tensor(size_t i, TfLiteTensor *tensor) {
  tensor->type = kTfLiteFloat32;
  tensor->is_variable = false;

#if defined(EI_CLASSIFIER_ALLOCATION_HEAP)
  tensor->allocation_type = tensorData[i].allocation_type;
#else
  tensor->allocation_type = (tensor_arena <= tensorData[i].data && tensorData[i].data < tensor_arena + kTensorArenaSize) ? kTfLiteArenaRw : kTfLiteMmapRo;
#endif
  tensor->bytes = tensorData[i].bytes;
  tensor->dims = tensorData[i].dims;

#if defined(EI_CLASSIFIER_ALLOCATION_HEAP)
  if(tensor->allocation_type == kTfLiteArenaRw){
    uint8_t* start = (uint8_t*) ((uintptr_t)tensorData[i].data + (uintptr_t) tensor_arena);

    tensor->data.data =  start;
  }
  else {
      tensor->data.data = tensorData[i].data;
  }
#else
  tensor->data.data = tensorData[i].data;
#endif // EI_CLASSIFIER_ALLOCATION_HEAP
  tensor->quantization.type = kTfLiteNoQuantization;

}

static void init_tflite_eval_tensor(int i, TfLiteEvalTensor *tensor) {

  tensor->type = kTfLiteFloat32;

  tensor->dims = tensorData[i].dims;

#if defined(EI_CLASSIFIER_ALLOCATION_HEAP)
  auto allocation_type = tensorData[i].allocation_type;
  if(allocation_type == kTfLiteArenaRw) {
    uint8_t* start = (uint8_t*) ((uintptr_t)tensorData[i].data + (uintptr_t) tensor_arena);

    tensor->data.data =  start;
  }
  else {
    tensor->data.data = tensorData[i].data;
  }
#else
  tensor->data.data = tensorData[i].data;
#endif // EI_CLASSIFIER_ALLOCATION_HEAP
}

static void* overflow_buffers[EI_MAX_OVERFLOW_BUFFER_COUNT];
static size_t overflow_buffers_ix = 0;
static void * AllocatePersistentBufferImpl(struct TfLiteContext* ctx,
                                       size_t bytes) {
  void *ptr;
  uint32_t align_bytes = (bytes % 16) ? 16 - (bytes % 16) : 0;

  if (current_location - (bytes + align_bytes) < tensor_boundary) {
    if (overflow_buffers_ix > EI_MAX_OVERFLOW_BUFFER_COUNT - 1) {
      ei_printf("ERR: Failed to allocate persistent buffer of size %d, does not fit in tensor arena and reached EI_MAX_OVERFLOW_BUFFER_COUNT\n",
        (int)bytes);
      return NULL;
    }

    // OK, this will look super weird, but.... we have CMSIS-NN buffers which
    // we cannot calculate beforehand easily.
    ptr = ei_calloc(bytes, 1);
    if (ptr == NULL) {
      ei_printf("ERR: Failed to allocate persistent buffer of size %d\n", (int)bytes);
      return NULL;
    }
    overflow_buffers[overflow_buffers_ix++] = ptr;
    return ptr;
  }

  current_location -= bytes;

  // align to the left aligned boundary of 16 bytes
  current_location -= 15; // for alignment
  current_location += 16 - ((uintptr_t)(current_location) & 15);

  ptr = current_location;
  memset(ptr, 0, bytes);

  return ptr;
}

typedef struct {
  size_t bytes;
  void *ptr;
} scratch_buffer_t;

static scratch_buffer_t scratch_buffers[EI_MAX_SCRATCH_BUFFER_COUNT];
static size_t scratch_buffers_ix = 0;

static TfLiteStatus RequestScratchBufferInArenaImpl(struct TfLiteContext* ctx, size_t bytes,
                                                int* buffer_idx) {
  if (scratch_buffers_ix > EI_MAX_SCRATCH_BUFFER_COUNT - 1) {
    ei_printf("ERR: Failed to allocate scratch buffer of size %d, reached EI_MAX_SCRATCH_BUFFER_COUNT\n",
      (int)bytes);
    return kTfLiteError;
  }

  scratch_buffer_t b;
  b.bytes = bytes;

  b.ptr = AllocatePersistentBufferImpl(ctx, b.bytes);
  if (!b.ptr) {
    ei_printf("ERR: Failed to allocate scratch buffer of size %d\n",
      (int)bytes);
    return kTfLiteError;
  }

  scratch_buffers[scratch_buffers_ix] = b;
  *buffer_idx = scratch_buffers_ix;

  scratch_buffers_ix++;

  return kTfLiteOk;
}

static void* GetScratchBufferImpl(struct TfLiteContext* ctx, int buffer_idx) {
  if (buffer_idx > (int)scratch_buffers_ix) {
    return NULL;
  }
  return scratch_buffers[buffer_idx].ptr;
}

static const uint16_t TENSOR_IX_UNUSED = 0x7FFF;

static void ResetTensors() {
  for (size_t ix = 0; ix < MAX_TFL_TENSOR_COUNT; ix++) {
    tflTensors[ix].index = TENSOR_IX_UNUSED;
  }
  for (size_t ix = 0; ix < MAX_TFL_EVAL_COUNT; ix++) {
    tflEvalTensors[ix].index = TENSOR_IX_UNUSED;
  }
}

static TfLiteTensor* GetTensorImpl(const struct TfLiteContext* context,
                               int tensor_idx) {

  tensor_idx = tflTensors_subgraph_index[current_subgraph_index] + tensor_idx;

  for (size_t ix = 0; ix < MAX_TFL_TENSOR_COUNT; ix++) {
    // already used? OK!
    if (tflTensors[ix].index == tensor_idx) {
      return &tflTensors[ix].tensor;
    }
    // passed all the ones we've used, so end of the list?
    if (tflTensors[ix].index == TENSOR_IX_UNUSED) {
      // init the tensor
      init_tflite_tensor(tensor_idx, &tflTensors[ix].tensor);
      tflTensors[ix].index = tensor_idx;
      return &tflTensors[ix].tensor;
    }
  }

  ei_printf("ERR: GetTensor called beyond MAX_TFL_TENSOR_COUNT (%d)\n", MAX_TFL_TENSOR_COUNT);
  return nullptr;
}

static TfLiteEvalTensor* GetEvalTensorImpl(const struct TfLiteContext* context,
                                       int tensor_idx) {

  tensor_idx = tflTensors_subgraph_index[current_subgraph_index] + tensor_idx;

  for (size_t ix = 0; ix < MAX_TFL_EVAL_COUNT; ix++) {
    // already used? OK!
    if (tflEvalTensors[ix].index == tensor_idx) {
      return &tflEvalTensors[ix].tensor;
    }
    // passed all the ones we've used, so end of the list?
    if (tflEvalTensors[ix].index == TENSOR_IX_UNUSED) {
      // init the tensor
      init_tflite_eval_tensor(tensor_idx, &tflEvalTensors[ix].tensor);
      tflEvalTensors[ix].index = tensor_idx;
      return &tflEvalTensors[ix].tensor;
    }
  }

  ei_printf("ERR: GetTensor called beyond MAX_TFL_EVAL_COUNT (%d)\n", (int)MAX_TFL_EVAL_COUNT);
  return nullptr;
}

class EonMicroContext : public MicroContext {
 public:
 
  EonMicroContext(): MicroContext(nullptr, nullptr, nullptr) { }

  void* AllocatePersistentBuffer(size_t bytes) {
    return AllocatePersistentBufferImpl(nullptr, bytes);
  }

  TfLiteStatus RequestScratchBufferInArena(size_t bytes,
                                           int* buffer_index) {
  return RequestScratchBufferInArenaImpl(nullptr, bytes, buffer_index);
  }

  void* GetScratchBuffer(int buffer_index) {
    return GetScratchBufferImpl(nullptr, buffer_index);
  }
 
  TfLiteTensor* AllocateTempTfLiteTensor(int tensor_index) {
    return GetTensorImpl(nullptr, tensor_index);
  }

  void DeallocateTempTfLiteTensor(TfLiteTensor* tensor) {
    return;
  }

  bool IsAllTempTfLiteTensorDeallocated() {
    return true;
  }

  TfLiteEvalTensor* GetEvalTensor(int tensor_index) {
    return GetEvalTensorImpl(nullptr, tensor_index);
  }

};


} // namespace

TfLiteStatus tflite_learn_840750_11_init( void*(*alloc_fnc)(size_t,size_t) ) {
#ifdef EI_CLASSIFIER_ALLOCATION_HEAP
  tensor_arena = (uint8_t*) alloc_fnc(16, kTensorArenaSize);
  if (!tensor_arena) {
    ei_printf("ERR: failed to allocate tensor arena\n");
    return kTfLiteError;
  }
#else
  memset(tensor_arena, 0, kTensorArenaSize);
#endif
  tensor_boundary = tensor_arena;
  current_location = tensor_arena + kTensorArenaSize;

  EonMicroContext micro_context_;
  
  // Set microcontext as the context ptr
  ctx.impl_ = static_cast<void*>(&micro_context_);
  // Setup tflitecontext functions
  ctx.AllocatePersistentBuffer = &AllocatePersistentBufferImpl;
  ctx.RequestScratchBufferInArena = &RequestScratchBufferInArenaImpl;
  ctx.GetScratchBuffer = &GetScratchBufferImpl;
  ctx.GetTensor = &GetTensorImpl;
  ctx.GetEvalTensor = &GetEvalTensorImpl;
  ctx.ReportError = &MicroContextReportOpError;

  ctx.tensors_size = 10;
  for (size_t i = 0; i < 10; ++i) {
    TfLiteTensor tensor;
    init_tflite_tensor(i, &tensor);
    if (tensor.allocation_type == kTfLiteArenaRw) {
      auto data_end_ptr = (uint8_t*)tensor.data.data + tensorData[i].bytes;
      if (data_end_ptr > tensor_boundary) {
        tensor_boundary = data_end_ptr;
      }
    }
  }

  if (tensor_boundary > current_location /* end of arena size */) {
    ei_printf("ERR: tensor arena is too small, does not fit model - even without scratch buffers\n");
    return kTfLiteError;
  }

  registrations[OP_FULLY_CONNECTED] = Register_FULLY_CONNECTED();

  for (size_t g = 0; g < 1; ++g) {
    current_subgraph_index = g;
    for(size_t i = tflNodes_subgraph_index[g]; i < tflNodes_subgraph_index[g+1]; ++i) {
      if (registrations[used_ops[i]].init) {
        tflNodes[i].user_data = registrations[used_ops[i]].init(&ctx, (const char*)tflNodes[i].builtin_data, 0);
      }
    }
  }
  current_subgraph_index = 0;

  for(size_t g = 0; g < 1; ++g) {
    current_subgraph_index = g;
    for(size_t i = tflNodes_subgraph_index[g]; i < tflNodes_subgraph_index[g+1]; ++i) {
      if (registrations[used_ops[i]].prepare) {
        ResetTensors();
        TfLiteStatus status = registrations[used_ops[i]].prepare(&ctx, &tflNodes[i]);
        if (status != kTfLiteOk) {
          return status;
        }
      }
    }
  }
  current_subgraph_index = 0;

  return kTfLiteOk;
}

TfLiteStatus tflite_learn_840750_11_input(int index, TfLiteTensor *tensor) {
  init_tflite_tensor(in_tensor_indices[index], tensor);
  return kTfLiteOk;
}

TfLiteStatus tflite_learn_840750_11_output(int index, TfLiteTensor *tensor) {
  init_tflite_tensor(out_tensor_indices[index], tensor);
  return kTfLiteOk;
}

TfLiteStatus tflite_learn_840750_11_invoke() {
  for (size_t i = 0; i < 3; ++i) {
    ResetTensors();

    TfLiteStatus status = registrations[used_ops[i]].invoke(&ctx, &tflNodes[i]);

#if EI_CLASSIFIER_PRINT_STATE
    ei_printf("layer %lu\n", i);
    ei_printf("    inputs:\n");
    for (size_t ix = 0; ix < tflNodes[i].inputs->size; ix++) {
      auto d = tensorData[tflNodes[i].inputs->data[ix]];

      size_t data_ptr = (size_t)d.data;

      if (d.allocation_type == kTfLiteArenaRw) {
        data_ptr = (size_t)tensor_arena + data_ptr;
      }

      if (d.type == TfLiteType::kTfLiteInt8) {
        int8_t* data = (int8_t*)data_ptr;
        ei_printf("        %lu (%zu bytes, ptr=%p, alloc_type=%d, type=%d): ", ix, d.bytes, data, (int)d.allocation_type, (int)d.type);
        for (size_t jx = 0; jx < d.bytes; jx++) {
          ei_printf("%d ", data[jx]);
        }
      }
      else {
        float* data = (float*)data_ptr;
        ei_printf("        %lu (%zu bytes, ptr=%p, alloc_type=%d, type=%d): ", ix, d.bytes, data, (int)d.allocation_type, (int)d.type);
        for (size_t jx = 0; jx < d.bytes / 4; jx++) {
          ei_printf("%f ", data[jx]);
        }
      }
      ei_printf("\n");
    }
    ei_printf("\n");

    ei_printf("    outputs:\n");
    for (size_t ix = 0; ix < tflNodes[i].outputs->size; ix++) {
      auto d = tensorData[tflNodes[i].outputs->data[ix]];

      size_t data_ptr = (size_t)d.data;

      if (d.allocation_type == kTfLiteArenaRw) {
        data_ptr = (size_t)tensor_arena + data_ptr;
      }

      if (d.type == TfLiteType::kTfLiteInt8) {
        int8_t* data = (int8_t*)data_ptr;
        ei_printf("        %lu (%zu bytes, ptr=%p, alloc_type=%d, type=%d): ", ix, d.bytes, data, (int)d.allocation_type, (int)d.type);
        for (size_t jx = 0; jx < d.bytes; jx++) {
          ei_printf("%d ", data[jx]);
        }
      }
      else {
        float* data = (float*)data_ptr;
        ei_printf("        %lu (%zu bytes, ptr=%p, alloc_type=%d, type=%d): ", ix, d.bytes, data, (int)d.allocation_type, (int)d.type);
        for (size_t jx = 0; jx < d.bytes / 4; jx++) {
          ei_printf("%f ", data[jx]);
        }
      }
      ei_printf("\n");
    }
    ei_printf("\n");
#endif // EI_CLASSIFIER_PRINT_STATE

    if (status != kTfLiteOk) {
      return status;
    }
  }
  return kTfLiteOk;
}

TfLiteStatus tflite_learn_840750_11_reset( void (*free_fnc)(void* ptr) ) {
#ifdef EI_CLASSIFIER_ALLOCATION_HEAP
  free_fnc(tensor_arena);
#endif

  // scratch buffers are allocated within the arena, so just reset the counter so memory can be reused
  scratch_buffers_ix = 0;

  // overflow buffers are on the heap, so free them first
  for (size_t ix = 0; ix < overflow_buffers_ix; ix++) {
    ei_free(overflow_buffers[ix]);
  }
  overflow_buffers_ix = 0;
  return kTfLiteOk;
}
