/*
 * Copyright (c) 2025 EdgeImpulse Inc.
 *
 * Generated by Edge Impulse and licensed under the applicable Edge Impulse
 * Terms of Service. Community and Professional Terms of Service
 * (https://edgeimpulse.com/legal/terms-of-service) or Enterprise Terms of
 * Service (https://edgeimpulse.com/legal/enterprise-terms-of-service),
 * according to your product plan subscription (the “License”).
 *
 * This software, documentation and other associated files (collectively referred
 * to as the “Software”) is a single SDK variation generated by the Edge Impulse
 * platform and requires an active paid Edge Impulse subscription to use this
 * Software for any purpose.
 *
 * You may NOT use this Software unless you have an active Edge Impulse subscription
 * that meets the eligibility requirements for the applicable License, subject to
 * your full and continued compliance with the terms and conditions of the License,
 * including without limitation any usage restrictions under the applicable License.
 *
 * If you do not have an active Edge Impulse product plan subscription, or if use
 * of this Software exceeds the usage limitations of your Edge Impulse product plan
 * subscription, you are not permitted to use this Software and must immediately
 * delete and erase all copies of this Software within your control or possession.
 * Edge Impulse reserves all rights and remedies available to enforce its rights.
 *
 * Unless required by applicable law or agreed to in writing, the Software is
 * distributed on an "AS IS" BASIS, WITHOUT WARRANTIES OR CONDITIONS OF ANY KIND,
 * either express or implied. See the License for the specific language governing
 * permissions, disclaimers and limitations under the License.
 */
// Generated on: 29.11.2025 18:39:21

#include <stdio.h>
#include <stdlib.h>
#include "edge-impulse-sdk/tensorflow/lite/c/builtin_op_data.h"
#include "edge-impulse-sdk/tensorflow/lite/c/common.h"
#include "edge-impulse-sdk/tensorflow/lite/micro/micro_mutable_op_resolver.h"
#include "edge-impulse-sdk/porting/ei_classifier_porting.h"

#if EI_CLASSIFIER_PRINT_STATE
#if defined(__cplusplus) && EI_C_LINKAGE == 1
extern "C" {
    extern void ei_printf(const char *format, ...);
}
#else
extern void ei_printf(const char *format, ...);
#endif
#endif

#define STRINGIZE(x) #x
#define STRINGIZE_VALUE_OF(x) STRINGIZE(x)

#if defined (__GNUC__)  /* GNU compiler */
#define ALIGN(X) __attribute__((aligned(X)))
#define DEFINE_SECTION(x) __attribute__((section(x)))
#elif defined (_MSC_VER)
#define ALIGN(X) __declspec(align(X))
#elif defined (__TASKING__) /* TASKING Compiler */
#define ALIGN(X) __align(X)
#define DEFINE_SECTION(x) __attribute__((section(x)))
#elif defined (__ARMCC_VERSION) /* Arm Compiler */
#define ALIGN(X) __ALIGNED(x)
#define DEFINE_SECTION(x) __attribute__((section(x)))
#elif defined (__ICCARM__) /* IAR Compiler */
#define ALIGN(x) __attribute__((aligned(x)))
#define DEFINE_SECTION(x) __attribute__((section(x)))
#elif defined (__clang__) /* LLVM/Clang Compiler */
#define ALIGN(X) __ALIGNED(x)
#define DEFINE_SECTION(x) __attribute__((section(x)))
#endif

#if defined(EI_MODEL_SECTION) && (defined(__GNUC__) || defined(__clang__))
#define MODEL_SECTION(X) __attribute__((section(STRINGIZE_VALUE_OF(X))))
#else
#define MODEL_SECTION(X)
#endif

#ifndef EI_MAX_SCRATCH_BUFFER_COUNT
#ifndef CONFIG_IDF_TARGET_ESP32S3
#define EI_MAX_SCRATCH_BUFFER_COUNT 4
#else
#define EI_MAX_SCRATCH_BUFFER_COUNT 4
#endif // CONFIG_IDF_TARGET_ESP32S3
#endif // EI_MAX_SCRATCH_BUFFER_COUNT

#ifndef EI_MAX_OVERFLOW_BUFFER_COUNT
#define EI_MAX_OVERFLOW_BUFFER_COUNT 10
#endif // EI_MAX_OVERFLOW_BUFFER_COUNT

using namespace tflite;
using namespace tflite::ops;
using namespace tflite::ops::micro;

namespace {

#if defined(EI_CLASSIFIER_ALLOCATION_STATIC_HIMAX) || defined(EI_CLASSIFIER_ALLOCATION_STATIC_HIMAX_GNU)
constexpr int kTensorArenaSize = 1392;
#else
constexpr int kTensorArenaSize = 368;
#endif

#if defined(EI_CLASSIFIER_ALLOCATION_STATIC)
#if defined (EI_TENSOR_ARENA_LOCATION)
uint8_t tensor_arena[kTensorArenaSize] ALIGN(16) DEFINE_SECTION(STRINGIZE_VALUE_OF(EI_TENSOR_ARENA_LOCATION));
#else
uint8_t tensor_arena[kTensorArenaSize] ALIGN(16);
#endif
#elif defined(EI_CLASSIFIER_ALLOCATION_STATIC_HIMAX)
#pragma Bss(".tensor_arena")
uint8_t tensor_arena[kTensorArenaSize] ALIGN(16);
#pragma Bss()
#elif defined(EI_CLASSIFIER_ALLOCATION_STATIC_HIMAX_GNU)
uint8_t tensor_arena[kTensorArenaSize] ALIGN(16) __attribute__((section(".tensor_arena")));
#else
#define EI_CLASSIFIER_ALLOCATION_HEAP 1
uint8_t* tensor_arena = NULL;
#endif

static uint8_t* tensor_boundary;
static uint8_t* current_location;

template <int SZ, class T> struct TfArray {
  int sz; T elem[SZ];
};

enum used_operators_e {
  OP_FULLY_CONNECTED,  OP_LAST
};

struct TensorInfo_t { // subset of TfLiteTensor used for initialization from constant memory
  TfLiteAllocationType allocation_type;
  void* data;
  TfLiteIntArray* dims;
  size_t bytes;
};

typedef struct {
  TfLiteTensor tensor;
  int16_t index;
} TfLiteTensorWithIndex;

typedef struct {
  TfLiteEvalTensor tensor;
  int16_t index;
} TfLiteEvalTensorWithIndex;

TfLiteContext ctx{};
static const int MAX_TFL_TENSOR_COUNT = 4;
static TfLiteTensorWithIndex tflTensors[MAX_TFL_TENSOR_COUNT];
static const int MAX_TFL_EVAL_COUNT = 4;
static TfLiteEvalTensorWithIndex tflEvalTensors[MAX_TFL_EVAL_COUNT];
TfLiteRegistration registrations[OP_LAST];

namespace g0 {
const TfArray<2, int> tensor_dimension0 = { 2, { 1,16 } };
const MODEL_SECTION(EI_MODEL_SECTION) ALIGN(16) float tensor_data1[10] = { -0.19354942440986633, -0.057845119386911392, -0.030026707798242569, 0.094505257904529572, 0.38617905974388123, -0.3810306191444397, 0.46187466382980347, -0.39665797352790833, 0.28262948989868164, -0.25732043385505676, };
const TfArray<1, int> tensor_dimension1 = { 1, { 10 } };
const MODEL_SECTION(EI_MODEL_SECTION) ALIGN(16) float tensor_data2[20] = { -0.26265570521354675, -0.14662483334541321, -0.174749955534935, -0.24303971230983734, -0.26359492540359497, -0.15215334296226501, -0.4548783004283905, -0.17543016374111176, -0.50247812271118164, -0.085428260266780853, 0.0034541066270321608, -0.21048587560653687, -0.77865922451019287, -0.38336259126663208, -0.35689252614974976, -0.20406799018383026, -0.23690760135650635, 0.076186150312423706, -0.021590802818536758, -0.10029567033052444, };
const TfArray<1, int> tensor_dimension2 = { 1, { 20 } };
const MODEL_SECTION(EI_MODEL_SECTION) ALIGN(4) float tensor_data3[1] = { 0.51065224409103394, };
const TfArray<1, int> tensor_dimension3 = { 1, { 1 } };
const MODEL_SECTION(EI_MODEL_SECTION) ALIGN(16) float tensor_data4[20*16] = { 
  0.012823762372136116, -0.037663564085960388, 0.20101623237133026, 0.16907423734664917, 0.61664426326751709, 0.018440961837768555, -0.061736028641462326, -0.18580137193202972, 0.1334226131439209, -0.39835488796234131, 0.056703343987464905, 0.14374017715454102, -0.78807461261749268, -0.083494663238525391, -0.035889927297830582, 0.49226957559585571, 
  -0.18466973304748535, 0.15064440667629242, 0.57429152727127075, 0.32101371884346008, -0.069955684244632721, 0.26308554410934448, 0.32230746746063232, -0.3024451732635498, 0.17644244432449341, 0.49007883667945862, -0.19710257649421692, 0.16775345802307129, -0.60619348287582397, -0.14667382836341858, 0.068878442049026489, -0.39193007349967957, 
  0.26156142354011536, -0.051170367747545242, -0.32108321785926819, -0.22903187572956085, 0.16289567947387695, -0.18888899683952332, 0.27008149027824402, 0.35630938410758972, 0.38512611389160156, 0.011186606250703335, -0.27735048532485962, 0.065383821725845337, -0.28508424758911133, 0.29867881536483765, -0.21469695866107941, 0.30043137073516846, 
  -0.37940514087677002, 0.16656868159770966, -0.28585141897201538, 0.15218774974346161, -0.057498373091220856, 0.16856026649475098, -0.10517852753400803, 0.31798025965690613, 0.19969767332077026, -0.39102378487586975, 0.23919418454170227, 0.32225567102432251, 0.090397968888282776, 0.24020490050315857, 0.031777460128068924, -0.17959576845169067, 
  0.33736354112625122, 0.0977679044008255, 0.056071832776069641, -0.19644708931446075, -0.23818095028400421, -0.2750764787197113, 0.36507037281990051, -0.069266289472579956, -0.19068564474582672, 0.3535398542881012, -0.10702034831047058, 0.073324888944625854, -0.24029864370822906, 0.016435375437140465, -0.24642002582550049, 0.21523886919021606, 
  0.0050021717324852943, 0.42278760671615601, 0.14639750123023987, -0.015815369784832001, 0.056855954229831696, -0.29006162285804749, 0.068978212773799896, 0.082901701331138611, -0.15675082802772522, -0.12103188037872314, -0.30194848775863647, -0.14567014575004578, -0.38836684823036194, 0.39337730407714844, 0.013220131397247314, -0.07503199577331543, 
  0.25385335087776184, -0.054197691380977631, -0.16615065932273865, -0.18883654475212097, -0.21215851604938507, -0.35849413275718689, -0.095861732959747314, 0.28194692730903625, -0.14209192991256714, 0.12491520494222641, -0.024704311043024063, -0.030337065458297729, 0.013468055054545403, 0.18361404538154602, 0.13224016129970551, -0.084325924515724182, 
  0.19546622037887573, -0.50644850730895996, 0.1120050847530365, 0.25226211547851562, 0.23232027888298035, 0.066333629190921783, 0.060634557157754898, 0.14942590892314911, -0.13004997372627258, 0.21100148558616638, -0.11425687372684479, 0.38735723495483398, -0.17131057381629944, 0.112673319876194, -0.20030695199966431, -0.38407519459724426, 
  0.048137027770280838, 0.21102131903171539, -0.098872721195220947, 0.1903509795665741, -0.55357784032821655, 0.39748245477676392, 0.099782831966876984, -0.39945295453071594, -0.032948344945907593, 0.36151582002639771, -0.12064947187900543, 0.24704521894454956, 0.40750604867935181, -0.2477991133928299, 0.1871059387922287, -0.33570945262908936, 
  -0.15798260271549225, 0.37505045533180237, 0.032609071582555771, -0.15928009152412415, 0.26067417860031128, 0.028732666745781898, -0.58076882362365723, 0.6688113808631897, -0.22174559533596039, -0.77884256839752197, -0.06221110001206398, -0.27806276082992554, -0.25166419148445129, -0.015656204894185066, -0.14606447517871857, 0.67423880100250244, 
  0.19516833126544952, -0.15214844048023224, 0.60494285821914673, -0.22348347306251526, 0.46098944544792175, -0.46829450130462646, -0.070585072040557861, -0.19913984835147858, -0.024762153625488281, 0.026495978236198425, -0.07546437531709671, 0.12183088064193726, -0.59427493810653687, -0.073509693145751953, 0.59138202667236328, -0.1477857232093811, 
  -0.017892893403768539, 0.17405475676059723, 0.40487593412399292, -0.32826760411262512, -0.12268783152103424, -0.54145759344100952, 0.22175109386444092, -0.14373078942298889, 0.296966552734375, -0.28848418593406677, 0.30192762613296509, 0.37190955877304077, 0.10220047831535339, 0.26950779557228088, -0.17508237063884735, 0.12359416484832764, 
  -0.11133921146392822, -0.33956408500671387, -0.43774616718292236, -0.058774936944246292, -0.34116333723068237, -0.032197888940572739, 0.075583785772323608, -0.56756317615509033, -0.32755133509635925, 0.76935797929763794, -0.34734773635864258, -0.3751615583896637, 0.40368294715881348, 0.19054850935935974, -0.12028593569993973, 0.10783135890960693, 
  0.089735507965087891, -0.4178692102432251, -0.20794554054737091, -0.14589239656925201, 0.29800048470497131, 0.33098533749580383, -0.40289172530174255, 0.35761564970016479, -0.05580294132232666, -0.10679355263710022, 0.061428077518939972, 0.10700488090515137, 0.35213607549667358, 0.030545754358172417, -0.099494174122810364, -0.31062793731689453, 
  0.74973553419113159, -0.060421589761972427, 0.10636693984270096, 0.24936306476593018, 0.40932345390319824, -0.11722177267074585, -0.057378455996513367, -0.65652483701705933, 0.18992859125137329, 0.66415351629257202, 0.49275660514831543, -0.40254852175712585, -1.0630201101303101, -0.0128548638895154, -0.3850669264793396, -0.46707352995872498, 
  0.049276888370513916, 0.4010595977306366, -0.34380772709846497, -0.3701627254486084, -0.31573212146759033, 0.076394684612751007, -0.08333086222410202, 0.13180330395698547, 0.14705413579940796, 0.21264240145683289, -0.048402808606624603, 0.15561532974243164, -0.21153897047042847, 0.13946036994457245, 0.07962413877248764, 0.281087726354599, 
  0.10500127822160721, -0.16258241236209869, 0.20426392555236816, -0.17631186544895172, 0.54327553510665894, -0.20517964661121368, -0.24469168484210968, 0.041479639708995819, 0.14734154939651489, -0.69928234815597534, -0.13720539212226868, -0.12789967656135559, 0.14232958853244781, 0.075311169028282166, 0.13439451158046722, 0.43598133325576782, 
  0.05943017452955246, 0.28073036670684814, 0.72013509273529053, 0.4405292272567749, 0.014051140286028385, 0.14285293221473694, 0.11015108972787857, -0.21663281321525574, 0.13959687948226929, 0.11687950789928436, -0.079489052295684814, 0.39430755376815796, -1.0908174514770508, 0.059063814580440521, -0.29192769527435303, -0.15816639363765717, 
  -0.2839188277721405, -0.033619366586208344, 0.75245046615600586, -0.31415671110153198, 0.76619327068328857, -0.069617725908756256, -0.36792677640914917, -0.068456292152404785, -0.011523574590682983, -0.52023023366928101, -0.027791712433099747, -0.1552584171295166, -0.65999317169189453, 0.0053310045041143894, -0.13913717865943909, 0.1271032989025116, 
  -0.0278809554874897, 0.28858634829521179, 0.024236083030700684, -0.21337004005908966, -0.075513862073421478, -0.13168241083621979, 0.12247117608785629, -0.047041513025760651, 0.29173570871353149, 0.24613900482654572, -0.32655569911003113, 0.32095110416412354, 0.29823261499404907, -0.022748325020074844, 0.049589082598686218, -0.16030734777450562, 
};
const TfArray<2, int> tensor_dimension4 = { 2, { 20,16 } };
const MODEL_SECTION(EI_MODEL_SECTION) ALIGN(16) float tensor_data5[10*20] = { 
  0.0019846216309815645, -0.30677264928817749, -0.26783642172813416, 0.049101203680038452, 0.38123911619186401, 0.040206938982009888, 0.33995446562767029, -0.40311142802238464, -0.16515861451625824, -0.33401462435722351, -0.054632682353258133, -0.070854097604751587, 0.10095010697841644, 0.29632022976875305, 0.17821182310581207, -0.31586644053459167, -0.14149472117424011, -0.13664986193180084, -0.40899762511253357, 0.094074904918670654, 
  -0.47783547639846802, -1.3071532249450684, 0.30131703615188599, 0.28571894764900208, 0.083236679434776306, -0.064300283789634705, -0.39843142032623291, -0.09283369779586792, -0.59955567121505737, -0.74457234144210815, -0.21948862075805664, -0.36763390898704529, -0.18802632391452789, 0.18948769569396973, -0.18751968443393707, 0.25690761208534241, 0.097942732274532318, 0.12436681240797043, -0.023269375786185265, 0.033775575459003448, 
  -0.086540102958679199, -0.39985749125480652, -0.011426568031311035, 0.3730064332485199, -0.18503651022911072, -0.22609998285770416, -0.13627669215202332, 0.048792913556098938, -0.18679077923297882, -0.043710947036743164, 0.12338340282440186, 0.16386321187019348, -0.081969767808914185, -0.36020490527153015, -0.050489902496337891, -0.29668563604354858, 0.32243669033050537, -0.40275311470031738, -0.38322222232818604, -0.33913829922676086, 
  -0.28749462962150574, 0.11862385272979736, 0.47693330049514771, 0.12764403223991394, -0.30010783672332764, -0.091159433126449585, -0.25113743543624878, -0.24884693324565887, -0.17827983200550079, -0.34529763460159302, -0.4080289900302887, -0.21029993891716003, -0.27463415265083313, -0.39255940914154053, 0.24480217695236206, -0.22170302271842957, -0.28630122542381287, -0.66939324140548706, 0.11476568132638931, 0.23130716383457184, 
  -0.28336384892463684, 0.092186823487281799, -0.24111531674861908, -0.1058209091424942, -0.32490476965904236, -0.02396695502102375, -0.085915014147758484, 0.15586277842521667, -0.080197140574455261, 0.088532432913780212, 0.069998279213905334, 0.089571982622146606, -0.046614024788141251, 0.2128196656703949, 0.019154872745275497, -0.40092283487319946, -0.19848206639289856, 0.26417499780654907, 0.43275344371795654, 0.17029222846031189, 
  -0.44021779298782349, 0.4003412127494812, -0.32562097907066345, 0.13974317908287048, 0.14736124873161316, -0.168656125664711, -0.21738965809345245, 0.2296978235244751, -0.49509859085083008, -0.18181578814983368, 0.82876694202423096, 0.20092436671257019, -0.19458532333374023, 0.092370495200157166, 0.16547113656997681, -0.24697564542293549, -0.32463955879211426, 0.36157822608947754, -0.925620436668396, -0.089228436350822449, 
  0.25986397266387939, 0.057926822453737259, -0.079284951090812683, -0.1847900003194809, 0.31053507328033447, 0.024530075490474701, 0.098159268498420715, -0.14148226380348206, 0.081559419631958008, -0.1118590384721756, -0.0053826980292797089, -0.05187508836388588, -0.22703517973423004, -0.12639239430427551, -0.029457477852702141, -0.062387898564338684, 0.22362282872200012, -0.13868406414985657, 0.11738470196723938, -0.19294735789299011, 
  0.04367191344499588, 0.27439218759536743, 0.22133626043796539, 0.16784177720546722, -0.0392795130610466, 0.53083771467208862, 0.13095922768115997, -0.40952384471893311, 0.30123358964920044, -0.12556423246860504, -0.074887394905090332, 0.33731827139854431, 0.11198459565639496, -0.18060436844825745, -0.1597159206867218, 0.19949495792388916, 0.3623998761177063, 0.0049363542348146439, 0.00073459354462102056, 0.3682626485824585, 
  0.080204866826534271, -0.034960027784109116, 0.19979998469352722, 0.20933777093887329, 0.09124329686164856, 0.076385520398616791, -0.31333619356155396, 0.004410608671605587, -0.12254612892866135, -0.13501833379268646, 0.14549905061721802, 0.099080778658390045, 0.057820431888103485, -0.21275849640369415, 0.11339424550533295, 0.30276820063591003, 0.001843660487793386, 0.20403344929218292, -0.56706845760345459, -0.034904036670923233, 
  -0.25929567217826843, -0.38103505969047546, -0.19706046581268311, -0.070962131023406982, 0.38394272327423096, 0.065871335566043854, -0.076080828905105591, -0.030723165720701218, 0.24533261358737946, -0.35648933053016663, -0.47626727819442749, 0.12739820778369904, -0.28586220741271973, -0.27123233675956726, -0.10257934033870697, -0.14271345734596252, -0.14666643738746643, 0.091575451195240021, 0.010248482227325439, 0.24220290780067444, 
};
const TfArray<2, int> tensor_dimension5 = { 2, { 10,20 } };
const MODEL_SECTION(EI_MODEL_SECTION) ALIGN(16) float tensor_data6[1*10] = { 
  0.27865785360336304, 0.023371566087007523, -0.56332403421401978, 0.043169204145669937, 0.37339332699775696, -0.048470623791217804, 0.42198178172111511, -0.030775103718042374, 0.36629155278205872, -0.49232825636863708, 
};
const TfArray<2, int> tensor_dimension6 = { 2, { 1,10 } };
const TfArray<2, int> tensor_dimension7 = { 2, { 1,20 } };
const TfArray<2, int> tensor_dimension9 = { 2, { 1,1 } };
const TfLiteFullyConnectedParams opdata0 = { kTfLiteActRelu, kTfLiteFullyConnectedWeightsFormatDefault, false, false };
const TfArray<3, int> inputs0 = { 3, { 0,4,2 } };
const TfArray<1, int> outputs0 = { 1, { 7 } };
const TfLiteFullyConnectedParams opdata1 = { kTfLiteActRelu, kTfLiteFullyConnectedWeightsFormatDefault, false, false };
const TfArray<3, int> inputs1 = { 3, { 7,5,1 } };
const TfArray<1, int> outputs1 = { 1, { 8 } };
const TfLiteFullyConnectedParams opdata2 = { kTfLiteActNone, kTfLiteFullyConnectedWeightsFormatDefault, false, false };
const TfArray<3, int> inputs2 = { 3, { 8,6,3 } };
const TfArray<1, int> outputs2 = { 1, { 9 } };
};

TensorInfo_t tensorData[] = {
{ kTfLiteArenaRw, (int32_t*)(tensor_arena + 80), (TfLiteIntArray*)&g0::tensor_dimension0, 64, },
{ kTfLiteMmapRo, (int32_t*)g0::tensor_data1, (TfLiteIntArray*)&g0::tensor_dimension1, 40, },
{ kTfLiteMmapRo, (int32_t*)g0::tensor_data2, (TfLiteIntArray*)&g0::tensor_dimension2, 80, },
{ kTfLiteMmapRo, (int32_t*)g0::tensor_data3, (TfLiteIntArray*)&g0::tensor_dimension3, 4, },
{ kTfLiteMmapRo, (int32_t*)g0::tensor_data4, (TfLiteIntArray*)&g0::tensor_dimension4, 1280, },
{ kTfLiteMmapRo, (int32_t*)g0::tensor_data5, (TfLiteIntArray*)&g0::tensor_dimension5, 800, },
{ kTfLiteMmapRo, (int32_t*)g0::tensor_data6, (TfLiteIntArray*)&g0::tensor_dimension6, 40, },
{ kTfLiteArenaRw, (int32_t*)(tensor_arena + 0), (TfLiteIntArray*)&g0::tensor_dimension7, 80, },
{ kTfLiteArenaRw, (int32_t*)(tensor_arena + 80), (TfLiteIntArray*)&g0::tensor_dimension6, 40, },
{ kTfLiteArenaRw, (int32_t*)(tensor_arena + 0), (TfLiteIntArray*)&g0::tensor_dimension9, 4, },
};

#ifndef TF_LITE_STATIC_MEMORY
TfLiteNode tflNodes[3] = {
{ (TfLiteIntArray*)&g0::inputs0, (TfLiteIntArray*)&g0::outputs0, (TfLiteIntArray*)&g0::inputs0, nullptr, nullptr, const_cast<void*>(static_cast<const void*>(&g0::opdata0)), nullptr, 0, },
{ (TfLiteIntArray*)&g0::inputs1, (TfLiteIntArray*)&g0::outputs1, (TfLiteIntArray*)&g0::inputs1, nullptr, nullptr, const_cast<void*>(static_cast<const void*>(&g0::opdata1)), nullptr, 0, },
{ (TfLiteIntArray*)&g0::inputs2, (TfLiteIntArray*)&g0::outputs2, (TfLiteIntArray*)&g0::inputs2, nullptr, nullptr, const_cast<void*>(static_cast<const void*>(&g0::opdata2)), nullptr, 0, },
};
#else
TfLiteNode tflNodes[3] = {
{ (TfLiteIntArray*)&g0::inputs0, (TfLiteIntArray*)&g0::outputs0, (TfLiteIntArray*)&g0::inputs0, nullptr, const_cast<void*>(static_cast<const void*>(&g0::opdata0)), nullptr, 0, },
{ (TfLiteIntArray*)&g0::inputs1, (TfLiteIntArray*)&g0::outputs1, (TfLiteIntArray*)&g0::inputs1, nullptr, const_cast<void*>(static_cast<const void*>(&g0::opdata1)), nullptr, 0, },
{ (TfLiteIntArray*)&g0::inputs2, (TfLiteIntArray*)&g0::outputs2, (TfLiteIntArray*)&g0::inputs2, nullptr, const_cast<void*>(static_cast<const void*>(&g0::opdata2)), nullptr, 0, },
};
#endif

used_operators_e used_ops[] =
{OP_FULLY_CONNECTED, OP_FULLY_CONNECTED, OP_FULLY_CONNECTED, };


// Indices into tflTensors and tflNodes for subgraphs
const size_t tflTensors_subgraph_index[] = {0, 10, };
const size_t tflNodes_subgraph_index[] = {0, 3, };

// Input/output tensors
static const int in_tensor_indices[] = {
  0, 
};

static const int out_tensor_indices[] = {
  9, 
};


size_t current_subgraph_index = 0;

static void init_tflite_tensor(size_t i, TfLiteTensor *tensor) {
  tensor->type = kTfLiteFloat32;
  tensor->is_variable = false;

#if defined(EI_CLASSIFIER_ALLOCATION_HEAP)
  tensor->allocation_type = tensorData[i].allocation_type;
#else
  tensor->allocation_type = (tensor_arena <= tensorData[i].data && tensorData[i].data < tensor_arena + kTensorArenaSize) ? kTfLiteArenaRw : kTfLiteMmapRo;
#endif
  tensor->bytes = tensorData[i].bytes;
  tensor->dims = tensorData[i].dims;

#if defined(EI_CLASSIFIER_ALLOCATION_HEAP)
  if(tensor->allocation_type == kTfLiteArenaRw){
    uint8_t* start = (uint8_t*) ((uintptr_t)tensorData[i].data + (uintptr_t) tensor_arena);

    tensor->data.data =  start;
  }
  else {
      tensor->data.data = tensorData[i].data;
  }
#else
  tensor->data.data = tensorData[i].data;
#endif // EI_CLASSIFIER_ALLOCATION_HEAP
  tensor->quantization.type = kTfLiteNoQuantization;

}

static void init_tflite_eval_tensor(int i, TfLiteEvalTensor *tensor) {

  tensor->type = kTfLiteFloat32;

  tensor->dims = tensorData[i].dims;

#if defined(EI_CLASSIFIER_ALLOCATION_HEAP)
  auto allocation_type = tensorData[i].allocation_type;
  if(allocation_type == kTfLiteArenaRw) {
    uint8_t* start = (uint8_t*) ((uintptr_t)tensorData[i].data + (uintptr_t) tensor_arena);

    tensor->data.data =  start;
  }
  else {
    tensor->data.data = tensorData[i].data;
  }
#else
  tensor->data.data = tensorData[i].data;
#endif // EI_CLASSIFIER_ALLOCATION_HEAP
}

static void* overflow_buffers[EI_MAX_OVERFLOW_BUFFER_COUNT];
static size_t overflow_buffers_ix = 0;
static void * AllocatePersistentBufferImpl(struct TfLiteContext* ctx,
                                       size_t bytes) {
  void *ptr;
  uint32_t align_bytes = (bytes % 16) ? 16 - (bytes % 16) : 0;

  if (current_location - (bytes + align_bytes) < tensor_boundary) {
    if (overflow_buffers_ix > EI_MAX_OVERFLOW_BUFFER_COUNT - 1) {
      ei_printf("ERR: Failed to allocate persistent buffer of size %d, does not fit in tensor arena and reached EI_MAX_OVERFLOW_BUFFER_COUNT\n",
        (int)bytes);
      return NULL;
    }

    // OK, this will look super weird, but.... we have CMSIS-NN buffers which
    // we cannot calculate beforehand easily.
    ptr = ei_calloc(bytes, 1);
    if (ptr == NULL) {
      ei_printf("ERR: Failed to allocate persistent buffer of size %d\n", (int)bytes);
      return NULL;
    }
    overflow_buffers[overflow_buffers_ix++] = ptr;
    return ptr;
  }

  current_location -= bytes;

  // align to the left aligned boundary of 16 bytes
  current_location -= 15; // for alignment
  current_location += 16 - ((uintptr_t)(current_location) & 15);

  ptr = current_location;
  memset(ptr, 0, bytes);

  return ptr;
}

typedef struct {
  size_t bytes;
  void *ptr;
} scratch_buffer_t;

static scratch_buffer_t scratch_buffers[EI_MAX_SCRATCH_BUFFER_COUNT];
static size_t scratch_buffers_ix = 0;

static TfLiteStatus RequestScratchBufferInArenaImpl(struct TfLiteContext* ctx, size_t bytes,
                                                int* buffer_idx) {
  if (scratch_buffers_ix > EI_MAX_SCRATCH_BUFFER_COUNT - 1) {
    ei_printf("ERR: Failed to allocate scratch buffer of size %d, reached EI_MAX_SCRATCH_BUFFER_COUNT\n",
      (int)bytes);
    return kTfLiteError;
  }

  scratch_buffer_t b;
  b.bytes = bytes;

  b.ptr = AllocatePersistentBufferImpl(ctx, b.bytes);
  if (!b.ptr) {
    ei_printf("ERR: Failed to allocate scratch buffer of size %d\n",
      (int)bytes);
    return kTfLiteError;
  }

  scratch_buffers[scratch_buffers_ix] = b;
  *buffer_idx = scratch_buffers_ix;

  scratch_buffers_ix++;

  return kTfLiteOk;
}

static void* GetScratchBufferImpl(struct TfLiteContext* ctx, int buffer_idx) {
  if (buffer_idx > (int)scratch_buffers_ix) {
    return NULL;
  }
  return scratch_buffers[buffer_idx].ptr;
}

static const uint16_t TENSOR_IX_UNUSED = 0x7FFF;

static void ResetTensors() {
  for (size_t ix = 0; ix < MAX_TFL_TENSOR_COUNT; ix++) {
    tflTensors[ix].index = TENSOR_IX_UNUSED;
  }
  for (size_t ix = 0; ix < MAX_TFL_EVAL_COUNT; ix++) {
    tflEvalTensors[ix].index = TENSOR_IX_UNUSED;
  }
}

static TfLiteTensor* GetTensorImpl(const struct TfLiteContext* context,
                               int tensor_idx) {

  tensor_idx = tflTensors_subgraph_index[current_subgraph_index] + tensor_idx;

  for (size_t ix = 0; ix < MAX_TFL_TENSOR_COUNT; ix++) {
    // already used? OK!
    if (tflTensors[ix].index == tensor_idx) {
      return &tflTensors[ix].tensor;
    }
    // passed all the ones we've used, so end of the list?
    if (tflTensors[ix].index == TENSOR_IX_UNUSED) {
      // init the tensor
      init_tflite_tensor(tensor_idx, &tflTensors[ix].tensor);
      tflTensors[ix].index = tensor_idx;
      return &tflTensors[ix].tensor;
    }
  }

  ei_printf("ERR: GetTensor called beyond MAX_TFL_TENSOR_COUNT (%d)\n", MAX_TFL_TENSOR_COUNT);
  return nullptr;
}

static TfLiteEvalTensor* GetEvalTensorImpl(const struct TfLiteContext* context,
                                       int tensor_idx) {

  tensor_idx = tflTensors_subgraph_index[current_subgraph_index] + tensor_idx;

  for (size_t ix = 0; ix < MAX_TFL_EVAL_COUNT; ix++) {
    // already used? OK!
    if (tflEvalTensors[ix].index == tensor_idx) {
      return &tflEvalTensors[ix].tensor;
    }
    // passed all the ones we've used, so end of the list?
    if (tflEvalTensors[ix].index == TENSOR_IX_UNUSED) {
      // init the tensor
      init_tflite_eval_tensor(tensor_idx, &tflEvalTensors[ix].tensor);
      tflEvalTensors[ix].index = tensor_idx;
      return &tflEvalTensors[ix].tensor;
    }
  }

  ei_printf("ERR: GetTensor called beyond MAX_TFL_EVAL_COUNT (%d)\n", (int)MAX_TFL_EVAL_COUNT);
  return nullptr;
}

class EonMicroContext : public MicroContext {
 public:
 
  EonMicroContext(): MicroContext(nullptr, nullptr, nullptr) { }

  void* AllocatePersistentBuffer(size_t bytes) {
    return AllocatePersistentBufferImpl(nullptr, bytes);
  }

  TfLiteStatus RequestScratchBufferInArena(size_t bytes,
                                           int* buffer_index) {
  return RequestScratchBufferInArenaImpl(nullptr, bytes, buffer_index);
  }

  void* GetScratchBuffer(int buffer_index) {
    return GetScratchBufferImpl(nullptr, buffer_index);
  }
 
  TfLiteTensor* AllocateTempTfLiteTensor(int tensor_index) {
    return GetTensorImpl(nullptr, tensor_index);
  }

  void DeallocateTempTfLiteTensor(TfLiteTensor* tensor) {
    return;
  }

  bool IsAllTempTfLiteTensorDeallocated() {
    return true;
  }

  TfLiteEvalTensor* GetEvalTensor(int tensor_index) {
    return GetEvalTensorImpl(nullptr, tensor_index);
  }

};


} // namespace

TfLiteStatus tflite_learn_840978_3_init( void*(*alloc_fnc)(size_t,size_t) ) {
#ifdef EI_CLASSIFIER_ALLOCATION_HEAP
  tensor_arena = (uint8_t*) alloc_fnc(16, kTensorArenaSize);
  if (!tensor_arena) {
    ei_printf("ERR: failed to allocate tensor arena\n");
    return kTfLiteError;
  }
#else
  memset(tensor_arena, 0, kTensorArenaSize);
#endif
  tensor_boundary = tensor_arena;
  current_location = tensor_arena + kTensorArenaSize;

  EonMicroContext micro_context_;
  
  // Set microcontext as the context ptr
  ctx.impl_ = static_cast<void*>(&micro_context_);
  // Setup tflitecontext functions
  ctx.AllocatePersistentBuffer = &AllocatePersistentBufferImpl;
  ctx.RequestScratchBufferInArena = &RequestScratchBufferInArenaImpl;
  ctx.GetScratchBuffer = &GetScratchBufferImpl;
  ctx.GetTensor = &GetTensorImpl;
  ctx.GetEvalTensor = &GetEvalTensorImpl;
  ctx.ReportError = &MicroContextReportOpError;

  ctx.tensors_size = 10;
  for (size_t i = 0; i < 10; ++i) {
    TfLiteTensor tensor;
    init_tflite_tensor(i, &tensor);
    if (tensor.allocation_type == kTfLiteArenaRw) {
      auto data_end_ptr = (uint8_t*)tensor.data.data + tensorData[i].bytes;
      if (data_end_ptr > tensor_boundary) {
        tensor_boundary = data_end_ptr;
      }
    }
  }

  if (tensor_boundary > current_location /* end of arena size */) {
    ei_printf("ERR: tensor arena is too small, does not fit model - even without scratch buffers\n");
    return kTfLiteError;
  }

  registrations[OP_FULLY_CONNECTED] = Register_FULLY_CONNECTED();

  for (size_t g = 0; g < 1; ++g) {
    current_subgraph_index = g;
    for(size_t i = tflNodes_subgraph_index[g]; i < tflNodes_subgraph_index[g+1]; ++i) {
      if (registrations[used_ops[i]].init) {
        tflNodes[i].user_data = registrations[used_ops[i]].init(&ctx, (const char*)tflNodes[i].builtin_data, 0);
      }
    }
  }
  current_subgraph_index = 0;

  for(size_t g = 0; g < 1; ++g) {
    current_subgraph_index = g;
    for(size_t i = tflNodes_subgraph_index[g]; i < tflNodes_subgraph_index[g+1]; ++i) {
      if (registrations[used_ops[i]].prepare) {
        ResetTensors();
        TfLiteStatus status = registrations[used_ops[i]].prepare(&ctx, &tflNodes[i]);
        if (status != kTfLiteOk) {
          return status;
        }
      }
    }
  }
  current_subgraph_index = 0;

  return kTfLiteOk;
}

TfLiteStatus tflite_learn_840978_3_input(int index, TfLiteTensor *tensor) {
  init_tflite_tensor(in_tensor_indices[index], tensor);
  return kTfLiteOk;
}

TfLiteStatus tflite_learn_840978_3_output(int index, TfLiteTensor *tensor) {
  init_tflite_tensor(out_tensor_indices[index], tensor);
  return kTfLiteOk;
}

TfLiteStatus tflite_learn_840978_3_invoke() {
  for (size_t i = 0; i < 3; ++i) {
    ResetTensors();

    TfLiteStatus status = registrations[used_ops[i]].invoke(&ctx, &tflNodes[i]);

#if EI_CLASSIFIER_PRINT_STATE
    ei_printf("layer %lu\n", i);
    ei_printf("    inputs:\n");
    for (size_t ix = 0; ix < tflNodes[i].inputs->size; ix++) {
      auto d = tensorData[tflNodes[i].inputs->data[ix]];

      size_t data_ptr = (size_t)d.data;

      if (d.allocation_type == kTfLiteArenaRw) {
        data_ptr = (size_t)tensor_arena + data_ptr;
      }

      if (d.type == TfLiteType::kTfLiteInt8) {
        int8_t* data = (int8_t*)data_ptr;
        ei_printf("        %lu (%zu bytes, ptr=%p, alloc_type=%d, type=%d): ", ix, d.bytes, data, (int)d.allocation_type, (int)d.type);
        for (size_t jx = 0; jx < d.bytes; jx++) {
          ei_printf("%d ", data[jx]);
        }
      }
      else {
        float* data = (float*)data_ptr;
        ei_printf("        %lu (%zu bytes, ptr=%p, alloc_type=%d, type=%d): ", ix, d.bytes, data, (int)d.allocation_type, (int)d.type);
        for (size_t jx = 0; jx < d.bytes / 4; jx++) {
          ei_printf("%f ", data[jx]);
        }
      }
      ei_printf("\n");
    }
    ei_printf("\n");

    ei_printf("    outputs:\n");
    for (size_t ix = 0; ix < tflNodes[i].outputs->size; ix++) {
      auto d = tensorData[tflNodes[i].outputs->data[ix]];

      size_t data_ptr = (size_t)d.data;

      if (d.allocation_type == kTfLiteArenaRw) {
        data_ptr = (size_t)tensor_arena + data_ptr;
      }

      if (d.type == TfLiteType::kTfLiteInt8) {
        int8_t* data = (int8_t*)data_ptr;
        ei_printf("        %lu (%zu bytes, ptr=%p, alloc_type=%d, type=%d): ", ix, d.bytes, data, (int)d.allocation_type, (int)d.type);
        for (size_t jx = 0; jx < d.bytes; jx++) {
          ei_printf("%d ", data[jx]);
        }
      }
      else {
        float* data = (float*)data_ptr;
        ei_printf("        %lu (%zu bytes, ptr=%p, alloc_type=%d, type=%d): ", ix, d.bytes, data, (int)d.allocation_type, (int)d.type);
        for (size_t jx = 0; jx < d.bytes / 4; jx++) {
          ei_printf("%f ", data[jx]);
        }
      }
      ei_printf("\n");
    }
    ei_printf("\n");
#endif // EI_CLASSIFIER_PRINT_STATE

    if (status != kTfLiteOk) {
      return status;
    }
  }
  return kTfLiteOk;
}

TfLiteStatus tflite_learn_840978_3_reset( void (*free_fnc)(void* ptr) ) {
#ifdef EI_CLASSIFIER_ALLOCATION_HEAP
  free_fnc(tensor_arena);
#endif

  // scratch buffers are allocated within the arena, so just reset the counter so memory can be reused
  scratch_buffers_ix = 0;

  // overflow buffers are on the heap, so free them first
  for (size_t ix = 0; ix < overflow_buffers_ix; ix++) {
    ei_free(overflow_buffers[ix]);
  }
  overflow_buffers_ix = 0;
  return kTfLiteOk;
}
